{
  "classes": [
    "Rice",
    "Cotton",
    "Soybean",
    "Maize",
    "Sugarcane",
    "Wheat",
    "Mustard",
    "Gram",
    "Barley",
    "Watermelon",
    "Cucumber",
    "Moong"
  ],
  "weights": [
    {
      "bias": -0.2637640823246745,
      "coefficients": [
        0.13233848021746433,
        0.3390807621000399,
        0.6608503438491948,
        0.17720942056050268,
        0.657817596030992,
        0.293861345674888,
        0.49862596783628715,
        0.7119897366613714,
        0.13505053645720178,
        -0.09929416795628197
      ]
    },
    {
      "bias": -0.09666788139740412,
      "coefficients": [
        -0.10881328092534749,
        -0.052985237394830784,
        0.15590985621039996,
        0.10603125347310106,
        0.08740818752819965,
        0.04719541411328799,
        0.07103578841265423,
        0.11823785208413168,
        0.009613911401934115,
        -0.001756089226322304
      ]
    },
    {
      "bias": 0.009725033135907129,
      "coefficients": [
        0.015058691182139046,
        -0.005722578597911247,
        -0.03083424016321894,
        -0.14088087081259215,
        -0.13232037057651683,
        -0.04935972543865878,
        -0.11368037780719605,
        -0.13288986650368836,
        -0.02556010421026382,
        0.006855687891662618
      ]
    },
    {
      "bias": -0.12470987003751609,
      "coefficients": [
        0.2077895045296338,
        0.26783657863850596,
        -0.04866484485025681,
        0.30108330549519735,
        0.2557269661997483,
        0.11017883630453182,
        0.18988225552051674,
        0.3074670495653024,
        0.08875605859901353,
        -0.03965416979965734
      ]
    },
    {
      "bias": -0.21532348946582786,
      "coefficients": [
        0.24702229732534495,
        0.17993759892716912,
        0.22186788493994802,
        -0.17209298750741595,
        0.3611295445517402,
        0.19717745944465717,
        0.3412685359386147,
        0.4682732418577981,
        0.07023683641308177,
        -0.0008136715345149327
      ]
    },
    {
      "bias": 0.15619960486839896,
      "coefficients": [
        -0.22598469970834062,
        -0.2005127675732284,
        -0.025939191556831415,
        -0.08438616001162554,
        -0.26545136690204707,
        -0.09045520319410952,
        -0.20056017462133394,
        -0.27126197538097857,
        -0.051600884718620545,
        -0.05844786225158506
      ]
    },
    {
      "bias": 0.07475592174237046,
      "coefficients": [
        -0.04792043767043395,
        -0.04347869960970576,
        -0.061752833375439416,
        -0.014432343088804873,
        -0.13414216610769733,
        -0.09649310717257809,
        -0.13294629652540493,
        -0.14809001268451327,
        -0.017399727432096498,
        0.007290820793841241
      ]
    },
    {
      "bias": 0.16122352933849277,
      "coefficients": [
        -0.24535271730160732,
        -0.2817416213851409,
        -0.0576774270947214,
        -0.0902538126565161,
        -0.309856774486234,
        -0.20910720408271416,
        -0.3307039163897943,
        -0.4344012540273036,
        -0.07914377899793311,
        0.09396914573376042
      ]
    },
    {
      "bias": 0.09737237003270707,
      "coefficients": [
        -0.19352955361033972,
        -0.18935414263501973,
        -0.12873430950690756,
        -0.049365060899129176,
        -0.2788290687698238,
        -0.11570266248687668,
        -0.22318443296962018,
        -0.29983238003802515,
        -0.05734020570305405,
        0.05322913449541432
      ]
    },
    {
      "bias": 0.03322147256247852,
      "coefficients": [
        0.055461788272991926,
        0.10412485193497327,
        -0.12573467964646154,
        0.08611526958455022,
        0.008330643182693262,
        -0.06010870612686519,
        -0.03898178918426261,
        -0.043077232003244044,
        0.022201919691435246,
        -0.001218644860665613
      ]
    },
    {
      "bias": 0.05347161028995615,
      "coefficients": [
        0.18453550309762845,
        0.13614410018269013,
        -0.19711937001040433,
        0.02036181133010871,
        -0.03557150320396167,
        -0.05843204056633865,
        -0.07496255157524444,
        -0.007859590157837139,
        0.02708260336683034,
        0.00410760312204995
      ]
    },
    {
      "bias": 0.10332788120774417,
      "coefficients": [
        -0.14034386545402977,
        -0.17256663182469603,
        -0.161395903018591,
        -0.022173641244267076,
        -0.2698406717000446,
        -0.1034556114892407,
        -0.2050122364436604,
        -0.29355385096216535,
        -0.05384258506649121,
        0.021344559279512895
      ]
    }
  ]
}